svm_type c_svc
kernel_type rbf
gamma 2
nr_class 2
total_sv 106
rho -1.01266
label 0 1
nr_sv 54 52
SV
0.125 1:0.135135 2:-1 3:-1 4:-0.528276 5:0.296992 
0.09197287217414647 1:0.142857 2:-1 3:-1 4:-1 5:0.181955 
0.125 2:-1 3:-0.809524 4:-1 5:0.201128 
0.125 1:-0.760956 2:-1 3:-1 4:-0.7 5:0.181955 
0.06516724684129893 1:-0.929825 2:-1 3:-1 4:-0.971787 5:0.488722 
0.125 1:-0.8 2:-0.68 3:-1 4:-0.962759 5:0.284211 
0.125 1:-0.691765 2:-0.694545 3:-1 4:-0.978558 5:0.130827 
0.125 1:-0.769231 2:-1 3:-1 4:-0.793103 5:0.304662 
0.01972641271595938 1:-0.683398 2:-0.470588 3:-1 4:-0.735294 5:-0.975393 
0.125 1:-0.788079 2:-0.727273 3:-1 4:-0.844828 5:0.419002 
0.125 1:-0.548023 2:-0.25 3:-0.666667 4:-0.75431 5:-0.138756 
0.125 1:-0.575758 2:-0.666667 3:-1 4:-0.741379 5:0.12782 
0.125 1:-0.738149 2:-0.770642 3:-0.963303 4:-0.874723 5:0.308271 
0.125 1:-0.546512 2:-0.73913 3:-0.652174 4:-0.797601 5:0.488722 
0.125 1:-0.613333 2:-0.860465 3:-1 4:-0.951885 5:0.181955 
0.125 1:-0.777778 2:-0.6 3:-0.84 4:-0.937931 5:0.269603 
0.125 1:-0.410959 2:-0.777778 3:-0.333333 4:-0.793103 5:0.488722 
0.125 1:-0.838926 2:-0.538462 3:-1 4:-0.832891 5:0.311741 
0.125 1:-0.327869 2:-0.969697 3:-0.69697 4:-0.89185 5:0.335338 
0.06870642505338435 1:-0.896752 2:-0.547368 3:-0.992982 4:-0.966243 5:0.488722 
0.125 1:-0.369574 2:-0.727969 3:-0.877395 4:-0.935196 5:-0.124812 
0.125 1:-0.760075 2:-0.533679 3:-0.937824 4:-0.963016 5:0.335338 
0.125 1:-0.661538 2:-0.714286 3:-1 4:-0.933498 5:0.370735 
0.125 1:-0.59322 2:-0.733333 3:-1 4:-0.958621 5:0.370735 
0.125 1:-0.59633 2:-0.703704 3:-1 4:-0.954023 5:0.370735 
0.125 1:-0.705882 2:-0.791667 3:-1 4:-0.721983 5:0.488722 
0.125 1:-0.895867 2:-0.521809 3:-0.974152 4:-0.981951 5:0.488722 
0.125 1:-0.758621 2:-0.37931 3:-0.862069 4:-0.914388 5:0.233083 
0.125 1:-0.876499 2:-0.489422 3:-0.988717 4:-0.949662 5:0.488722 
0.06712040824498088 1:-0.878075 2:-0.521127 3:-0.830986 4:-0.971588 5:0.233083 
0.112069014137081 1:-0.929412 2:-0.333333 3:-1 4:-0.968966 5:1 
0.125 1:-0.718919 2:-0.5 3:-0.833333 4:-0.909483 5:0.488722 
0.08763856020070199 1:0.142857 2:-1 3:-1 4:-1 5:0.181955 
0.125 1:-0.718919 2:-0.5 3:-0.833333 4:-0.909483 5:0.269603 
0.125 1:-0.901576 2:-0.432911 3:-0.939241 4:-0.969358 5:0.488722 
0.125 1:-0.909091 2:-0.65 3:-1 4:-0.94569 5:0.488722 
0.125 1:-0.621851 2:-0.69697 3:-0.795455 4:-0.871277 5:0.327266 
0.125 1:-0.898551 2:-0.648649 3:-1 4:-0.958062 5:0.488722 
0.125 1:0.166667 2:-1 3:-1 4:-1 5:0.233083 
0.125 1:-0.676898 2:-0.781548 3:-1 4:-0.957217 5:0.284211 
0.125 1:-0.63222 2:-0.70979 3:-1 4:-0.949813 5:0.386466 
0.125 1:-0.79017 2:-0.55 3:-0.833333 4:-0.963362 5:0.263158 
0.125 1:-0.868733 2:-0.587463 3:-0.935469 4:-0.961234 5:0.488722 
0.125 1:-0.230769 2:-1 3:-1 4:-1 5:0.0592481 
0.125 1:-0.111111 2:-1 3:-1 4:-0.37931 5:0.120602 
0.1183247317280383 1:-0.0526316 2:-1 3:-1 4:-0.275862 5:0.120602 
0.04415626942063041 1:-0.769231 2:-1 3:-1 4:-0.793103 5:0.181955 
0.125 1:-0.681159 2:-0.833333 3:-0.666667 4:-0.948276 5:0.243308 
0.125 1:-0.681159 2:-0.833333 3:-0.666667 4:-0.948276 5:0.366015 
0.125 1:-0.769231 2:-1 3:-1 4:-0.793103 5:0.427368 
0.125 1:-0.681159 2:-0.833333 3:-0.666667 4:-0.948276 5:0.488722 
0.125 1:-0.129496 2:-0.853659 3:0.0731707 4:-0.931876 5:0.0285714 
0.125 1:-0.6 2:-1 3:-1 4:-1 5:0.233083 
0.125 1:-0.929193 2:-0.480387 3:-0.974986 4:-0.98465 5:1 
-0.125 1:-0.51054 2:-0.574586 3:-0.78453 4:-0.880834 5:0.488722 
-0.125 1:-0.463579 2:-0.7332 3:-0.767302 4:-0.79798 5:0.488722 
-0.125 1:-0.716069 2:-0.592233 3:-0.883495 4:-0.945765 5:0.386466 
-0.125 1:-0.843511 2:-0.642857 3:-0.904762 4:-0.963054 5:0.488722 
-0.125 1:-0.483092 2:-0.75 3:-0.75 4:-0.806034 5:0.318296 
-0.125 1:-0.547792 2:-0.690789 3:-0.828947 4:-0.861162 5:0.488722 
-0.125 1:-0.505391 2:-0.757848 3:-0.820628 4:-0.844132 5:0.488722 
-0.125 1:-0.48954 2:-0.670251 3:-0.784946 4:-0.873192 5:0.335338 
-0.125 1:-0.552613 2:-0.604061 3:-0.796954 4:-0.878698 5:0.488722 
-0.125 1:-0.56341 2:-0.704762 3:-0.809524 4:-0.824138 5:0.488722 
-0.125 1:-0.512072 2:-0.73913 3:-0.78744 4:-0.853823 5:0.488722 
-0.125 1:-0.543767 2:-0.743119 3:-0.832241 4:-0.861707 5:0.488722 
-0.125 1:-0.489985 2:-0.68254 3:-0.724868 4:-0.857143 5:0.488722 
-0.125 1:-0.566851 2:-0.662269 3:-0.82058 4:-0.817396 5:0.488722 
-0.125 1:-0.498652 2:-0.732558 3:-0.813953 4:-0.875501 5:0.488722 
-0.125 1:-0.515772 2:-0.833333 3:-0.583333 4:-0.885776 5:0.488722 
-0.125 1:-0.524205 2:-0.818616 3:-0.809069 4:-0.861493 5:0.488722 
-0.125 1:-0.548023 2:-0.787234 3:-0.829787 4:-0.881145 5:0.269603 
-0.125 1:-0.510238 2:-0.770213 3:-0.784397 4:-0.867938 5:0.488722 
-0.125 1:-0.547845 2:-0.702016 3:-0.779141 4:-0.823476 5:0.488722 
-0.04006303372347677 1:-0.419355 2:-0.839286 3:-0.5 4:-0.833744 5:0.488722 
-0.125 1:-0.515738 2:-0.72093 3:-0.661734 4:-0.883211 5:0.160043 
-0.125 1:-0.509721 2:-0.701149 3:-0.793103 4:-0.844828 5:0.488722 
-0.125 1:-0.512427 2:-0.820175 3:-0.561404 4:-0.893829 5:0.269603 
-0.125 1:-0.388471 2:-0.96 3:-0.44 4:-0.801379 5:0.488722 
-0.125 1:-0.566514 2:-0.734375 3:-0.78125 4:-0.827856 5:0.488722 
-0.125 1:-0.581746 2:-0.670455 3:-0.818182 4:-0.876567 5:0.488722 
-0.125 1:-0.513745 2:-0.776876 3:-0.805274 4:-0.86025 5:0.488722 
-0.125 1:-0.501896 2:-0.760825 3:-0.802062 4:-0.842588 5:0.724696 
-0.125 1:-0.658537 2:-0.481481 3:-1 4:-0.793103 5:-0.825994 
-0.125 1:-0.495117 2:-0.784512 3:-0.771044 4:-0.840125 5:0.488722 
-0.125 1:-0.487889 2:-0.619048 3:-0.714286 4:-0.763547 5:0.488722 
-0.125 1:-0.728738 2:-0.552426 3:-0.862285 4:-0.911608 5:0.488722 
-0.125 1:-0.5 2:-0.781818 3:-0.672727 4:-0.80815 5:0.327266 
-0.125 1:-0.514245 2:-0.793584 3:-0.827057 4:-0.87491 5:0.488722 
-0.125 1:-0.531414 2:-0.725806 3:-0.967742 4:-0.839822 5:0.488722 
-0.125 1:-0.564825 2:-0.739837 3:-0.837398 4:-0.896552 5:0.488722 
-0.125 1:-0.545355 2:-0.686473 3:-0.823009 4:-0.883866 5:0.488722 
-0.125 1:-0.222222 2:-0.724138 3:-0.586207 4:-0.850178 5:0.233083 
-0.125 1:-0.504726 2:-0.755627 3:-0.78135 4:-0.86728 5:0.233083 
-0.125 1:-0.562199 2:-0.730496 3:-0.716312 4:-0.841526 5:0.488722 
-0.125 1:-0.554046 2:-0.572118 3:-0.789812 4:-0.837423 5:0.488722 
-0.125 1:-0.531983 2:-0.66811 3:-0.751804 4:-0.801612 5:0.488722 
-0.125 1:-0.515097 2:-0.566098 3:-0.855011 4:-0.804132 5:0.488722 
-0.125 1:-0.488504 2:-0.718023 3:-0.796512 4:-0.839415 5:0.488722 
-0.125 1:-0.519475 2:-0.692641 3:-0.72583 4:-0.844828 5:0.443609 
-0.125 1:-0.496503 2:-0.826087 3:-0.826087 4:-0.91904 5:0.488722 
-0.125 1:-0.637681 2:-0.8 3:-1 4:-0.813793 5:0.193754 
-0.125 1:-0.469146 2:-0.714912 3:-0.640351 4:-0.880898 5:0.379162 
-0.125 1:-0.56043 2:-0.735385 3:-0.778462 4:-0.837666 5:0.488722 
-0.125 1:-0.566749 2:-0.742049 3:-0.809187 4:-0.840441 5:0.488722 
-0.009818906792744865 1:-0.495327 2:-0.749664 3:-0.730821 4:-0.797002 5:0.488722 
