svm_type c_svc
kernel_type rbf
gamma 8
nr_class 2
total_sv 127
rho -0.961432
label 0 1
nr_sv 90 37
SV
0.01857436364550136 2:-1 3:-0.809524 4:-1 5:0.065 
0.01937561173990551 1:-1 2:-1 3:-1 4:-1 5:-0.9312 
0.0160910161902079 1:1 2:-1 3:-1 4:-1 5:0.15 
0.01400900681690667 1:0.761194 2:-0.777778 3:-1 4:0.725709 5:-0.088 
0.03032223844259175 1:-0.183673 2:-1 3:-1 4:-0.821478 5:-0.0426667 
0.02126950063232856 1:-0.743902 2:-0.391304 3:-1 4:-0.813717 5:-0.768 
0.02113478553748108 1:0.47619 2:-1 3:-1 4:-1 5:0.0933333 
0.01823561274250169 1:0.737705 2:-0.777778 3:-1 4:0.547187 5:-0.224 
0.09700250121827236 1:-0.809524 2:-0.52381 3:-1 4:-0.885236 5:0.32 
0.01766030634427132 1:-0.788079 2:-0.727273 3:-1 4:-0.866109 5:0.258182 
0.02997117793994787 1:-0.428571 2:-1 3:0.333333 4:-0.866109 5:-0.942857 
0.03160597346787591 1:-0.533981 2:-0.363636 3:-1 4:-0.878281 5:-0.96 
0.01883478571632254 1:1 2:-1 3:-1 4:-1 5:0.32 
0.06000320619142035 1:-0.548023 2:-0.25 3:-0.666667 4:-0.788006 5:-0.236364 
0.007004876856992319 1:-0.666667 2:-0.333333 3:-1 4:-1 5:-0.669091 
0.03827464518754259 1:-1 2:1 3:-1 4:-1 5:-0.96 
0.02726286733562099 1:1 2:-1 3:-1 4:-1 5:-0.96 
0.125 1:-0.696203 2:-0.333333 3:-0.666667 4:-0.888424 5:0.229333 
0.03344964665575857 1:0.800784 2:-1 3:-1 4:1 5:0.08 
0.03128222505105369 1:0.630952 2:-1 3:-1 4:-0.439331 5:0.08 
0.125 1:-0.575758 2:-0.666667 3:-1 4:-0.776848 5:-1.11022e-16 
0.125 1:-0.738149 2:-0.770642 3:-0.963303 4:-0.891904 5:0.16 
0.01250576564390459 1:-0.957447 2:-0.492958 3:-1 4:-0.996228 5:-0.9856 
0.03217406791268479 1:-0.00854701 2:-1 3:-1 4:-0.330544 5:-1.11022e-16 
0.02480526634234231 1:-0.971831 2:0.0909091 3:-1 4:-1 5:-0.133333 
0.01096993112524694 1:-1 2:-0.333333 3:-1 4:-1 5:-0.496 
0.012887019582354 1:-0.714286 3:-1 4:-1 5:-0.405333 
0.003331701548896184 1:-0.965812 2:-0.647059 3:-1 4:-1 5:-0.9856 
0.005803393610819437 1:-0.769231 2:-1 3:-1 4:-0.821478 5:-0.8224 
0.006890344962442365 1:-0.818182 2:-0.793103 3:-0.586207 4:-0.981532 5:-0.96 
0.125 1:-0.777778 2:-0.6 3:-0.84 4:-0.946444 5:0.125714 
0.001142586695743055 1:-0.705263 2:-0.466667 3:-1 4:-0.946444 5:-0.87 
0.01168005213986096 1:-0.605263 2:-0.333333 3:-1 4:-0.754533 5:-0.87 
0.125 1:-0.410959 2:-0.777778 3:-0.333333 4:-0.821478 5:0.32 
0.125 1:-0.327869 2:-0.969697 3:-0.69697 4:-0.906682 5:0.184 
0.00677461796062185 1:-0.537037 2:-0.733333 3:-0.733333 4:-0.821478 5:-0.935385 
0.001379215298278784 1:-0.748571 2:-0.652174 3:-1 4:-0.860287 5:-1 
0.0219356287285079 1:0.378378 2:-1 3:-1 4:-1 5:-0.68 
0.02157538481319524 1:-0.388889 2:-1 4:-0.888424 5:-1 
0.03357748970377396 2:-0.684211 3:-0.368421 4:-0.802687 5:-1 
0.003894873430265556 1:-0.958779 2:-0.537688 3:-1 4:-0.997309 5:-0.9856 
0.02545507275489556 1:1 2:-1 3:-1 4:-1 5:-0.632 
0.03899336388799851 1:0.0447761 2:-1 3:1 4:-1 5:-0.088 
0.03208662393251911 1:0.866667 2:-1 3:-1 4:0.472803 5:-0.516923 
0.004986448465924906 1:-1 2:-0.666667 3:-1 4:-1 5:-0.632 
0.009054249612984358 1:-0.707483 2:-0.487179 3:-1 4:-0.766549 5:-0.975238 
0.125 1:-0.130435 2:-1 3:-1 4:-0.933054 5:0.2656 
0.00932561307323757 1:-1 2:-1 3:-1 4:-1 5:-0.7 
0.125 1:-0.167382 2:-0.755102 3:-0.510204 4:-0.912561 5:0.048 
0.01366866452122291 1:-0.773913 2:-0.428571 3:-0.714286 4:-1 5:-0.942857 
0.125 1:-0.610811 2:-0.6 3:-0.84 4:-0.860753 5:-0.133333 
0.03093352314049818 1:-0.603175 2:-0.571429 3:-1 4:-0.751345 5:-0.813333 
0.003235639174723532 1:0.687075 2:-1 3:-1 4:-0.788006 5:0.32 
0.125 1:-0.369574 2:-0.727969 3:-0.877395 4:-0.944084 5:-0.224 
0.03304675897033391 1:-0.79562 2:0.263158 3:-1 4:-0.81678 5:-0.96 
0.04097040264957937 1:-0.760075 2:-0.533679 3:-0.937824 4:-0.968088 5:0.184 
0.125 1:-0.807692 2:-0.502762 3:-0.933702 4:-0.928986 5:0.32 
0.03861958220096956 1:0.857143 3:-1 4:0.606695 5:-0.949333 
0.0241583069877076 1:-0.259259 2:-1 3:-0.333333 4:-0.95537 5:-0.6592 
0.0246536887936159 1:-0.579439 2:-0.612903 3:-1 4:-0.714941 5:-0.942857 
0.125 1:-0.567568 2:-0.6 3:-1 4:-0.973222 5:0.215385 
0.125 1:-0.661538 2:-0.714286 3:-1 4:-0.942618 5:0.215385 
0.00561316195289121 1:-0.953488 2:-0.333333 3:-1 4:-1 5:-0.87 
0.0113461854574554 1:0.777778 2:-1 3:-1 4:-0.732218 5:0.32 
0.125 1:-0.59322 2:-0.733333 3:-1 4:-0.964296 5:0.215385 
0.125 1:-0.59633 2:-0.703704 3:-1 4:-0.960329 5:0.215385 
0.125 1:-0.529412 2:-1 3:-1 4:-0.732218 5:0.215385 
0.125 1:-0.705882 2:-0.791667 3:-1 4:-0.760112 5:0.32 
0.0291523348938202 1:-0.677852 2:-0.44 3:-1 4:-0.817908 5:-0.845714 
0.02288122491162361 1:0.244681 2:-0.944444 3:-0.277778 4:-0.90702 5:-0.53 
0.04322752767081517 1:-0.924961 2:-0.437372 3:-0.975359 4:-0.979655 5:1 
0.125 1:-0.737693 2:-0.674757 3:-0.951456 4:-0.899257 5:0.16 
0.1240880203368809 1:-0.676898 2:-0.781548 3:-1 4:-0.963084 5:0.138667 
0.125 1:-0.63222 2:-0.70979 3:-1 4:-0.956696 5:0.229333 
0.125 1:-0.79017 2:-0.55 3:-0.833333 4:-0.968387 5:0.12 
0.02530601224001184 1:-0.868733 2:-0.587463 3:-0.935469 4:-0.96655 5:0.32 
0.006671484160950634 1:-0.873016 2:-0.0588235 3:-1 4:-0.889737 5:-0.904 
0.125 1:-0.610811 2:-0.6 3:-0.84 4:-0.860753 5:0.32 
0.01570854122336294 1:-0.781818 2:-0.75 3:-0.5 4:-0.966527 5:-0.8768 
0.0836137287825839 1:-0.681159 2:-0.833333 3:-0.666667 4:-0.95537 5:-0.3328 
0.125 1:-0.681159 2:-0.833333 3:-0.666667 4:-0.95537 5:0.2112 
0.03714202104050296 1:-0.769231 2:-1 3:-1 4:-0.821478 5:0.2656 
0.125 1:-0.681159 2:-0.833333 3:-0.666667 4:-0.95537 5:0.32 
0.01857206694116549 1:0.322835 2:-1 3:-0.5 4:-0.944212 5:-0.36 
0.03075145032456461 1:-0.129496 2:-0.853659 3:0.0731707 4:-0.941218 5:-0.088 
0.00632380603735933 1:-0.695652 2:-1 3:-1 4:-0.948994 5:-0.8 
0.003936231589231347 1:-0.575758 2:-0.6 3:-1 4:-0.732218 5:-0.792727 
0.01447392509447366 1:0.111111 2:-1 3:-1 4:-0.785774 5:-0.53 
0.06198936228686536 1:-0.6 2:-1 3:-1 4:-1 5:0.0933333 
0.01295834392175865 1:0.142857 2:-1 3:-1 4:-1 5:-0.7 
-0.125 1:-0.51054 2:-0.574586 3:-0.78453 4:-0.897177 5:0.32 
-0.125 1:-0.474211 2:-0.787234 3:-0.730496 4:-0.84047 5:0.048 
-0.125 1:-0.716069 2:-0.592233 3:-0.883495 4:-0.953203 5:0.229333 
-0.125 1:-0.843511 2:-0.642857 3:-0.904762 4:-0.968121 5:0.32 
-0.125 1:-0.483092 2:-0.75 3:-0.75 4:-0.832636 5:0.168889 
-0.125 1:-0.361538 2:-0.74359 3:-0.74359 4:-0.876408 5:0.32 
-0.125 1:-0.547792 2:-0.690789 3:-0.828947 4:-0.880203 5:0.32 
-0.02063505424396911 1:-0.505391 2:-0.757848 3:-0.820628 4:-0.865508 5:0.32 
-0.125 1:-0.48954 2:-0.670251 3:-0.784946 4:-0.890584 5:0.184 
-0.125 1:-0.393393 2:-0.821429 3:-0.785714 4:-0.890018 5:0.32 
-0.125 1:-0.552613 2:-0.604061 3:-0.796954 4:-0.895334 5:0.32 
-0.125 1:-0.56341 2:-0.704762 3:-0.809524 4:-0.848257 5:0.32 
-0.125 1:-0.543767 2:-0.743119 3:-0.832241 4:-0.880674 5:0.32 
-0.125 1:-0.494214 2:-0.720183 3:-0.724771 4:-0.851983 5:0.16 
-0.125 1:-0.566851 2:-0.662269 3:-0.82058 4:-0.842439 5:0.32 
-0.125 1:-0.521058 2:-0.801829 3:-0.823171 4:-0.853454 5:0.32 
-0.125 1:-0.464121 2:-0.779661 3:-0.737288 4:-0.838877 5:0.424615 
-0.125 1:-0.476154 2:-0.825137 3:-0.759563 4:-0.847818 5:0.456 
-0.125 1:-0.515772 2:-0.833333 3:-0.583333 4:-0.901441 5:0.32 
-0.125 1:-0.527421 2:-0.730413 3:-0.814659 4:-0.894421 5:0.125714 
-0.125 1:-0.524205 2:-0.818616 3:-0.809069 4:-0.880489 5:0.32 
-0.125 1:-0.548023 2:-0.787234 3:-0.829787 4:-0.897445 5:0.125714 
-0.125 1:-0.419355 2:-0.839286 3:-0.5 4:-0.856545 5:0.32 
-0.125 1:-0.515738 2:-0.72093 3:-0.661734 4:-0.899228 5:0.0285714 
-0.125 1:-0.537209 2:-0.811024 3:-0.811024 4:-0.877706 5:0.32 
-0.125 1:-0.512427 2:-0.820175 3:-0.561404 4:-0.90839 5:0.125714 
-0.125 1:-0.566514 2:-0.734375 3:-0.78125 4:-0.851464 5:0.32 
-0.125 1:-0.581746 2:-0.670455 3:-0.818182 4:-0.893496 5:0.32 
-0.125 1:-0.501896 2:-0.760825 3:-0.802062 4:-0.864176 5:0.529231 
-0.125 1:-0.658537 2:-0.481481 3:-1 4:-0.821478 5:-0.845714 
-0.125 1:-0.728738 2:-0.552426 3:-0.862285 4:-0.92373 5:0.32 
-0.125 1:-0.554046 2:-0.572118 3:-0.789812 4:-0.859719 5:0.32 
-0.125 1:-0.515097 2:-0.566098 3:-0.855011 4:-0.830994 5:0.32 
-0.125 1:-0.603835 2:-0.577181 3:-0.704698 4:-0.875993 5:-0.174545 
-0.125 1:-0.57637 2:-0.550278 3:-0.777665 4:-0.875919 5:0.32 
-0.125 1:-0.496503 2:-0.826087 3:-0.826087 4:-0.930144 5:0.32 
-0.125 1:-0.469146 2:-0.714912 3:-0.640351 4:-0.897233 5:0.222857 
